digraph Tree {
node [shape=box, style="filled, rounded", color="black", fontname=helvetica] ;
edge [fontname=helvetica] ;
0 [label="sepal length (cm) <= 5.45\ngini = 0.66\nsamples = 99\nvalue = [52, 45, 53]\nclass = virginica", fillcolor="#fefdff"] ;
1 [label="petal width (cm) <= 0.8\ngini = 0.11\nsamples = 36\nvalue = [50, 2, 1]\nclass = setosa", fillcolor="#e78845"] ;
0 -> 1 [labeldistance=2.5, labelangle=45, headlabel="True"] ;
2 [label="gini = 0.0\nsamples = 33\nvalue = [50, 0, 0]\nclass = setosa", fillcolor="#e58139"] ;
1 -> 2 ;
3 [label="sepal length (cm) <= 4.95\ngini = 0.44\nsamples = 3\nvalue = [0, 2, 1]\nclass = versicolor", fillcolor="#9cf2c0"] ;
1 -> 3 ;
4 [label="gini = 0.0\nsamples = 1\nvalue = [0, 0, 1]\nclass = virginica", fillcolor="#8139e5"] ;
3 -> 4 ;
5 [label="gini = 0.0\nsamples = 2\nvalue = [0, 2, 0]\nclass = versicolor", fillcolor="#39e581"] ;
3 -> 5 ;
6 [label="petal length (cm) <= 4.75\ngini = 0.52\nsamples = 63\nvalue = [2, 43, 52]\nclass = virginica", fillcolor="#eadefb"] ;
0 -> 6 [labeldistance=2.5, labelangle=-45, headlabel="False"] ;
7 [label="petal length (cm) <= 2.55\ngini = 0.09\nsamples = 27\nvalue = [2, 38, 0]\nclass = versicolor", fillcolor="#43e688"] ;
6 -> 7 ;
8 [label="gini = 0.0\nsamples = 2\nvalue = [2, 0, 0]\nclass = setosa", fillcolor="#e58139"] ;
7 -> 8 ;
9 [label="gini = 0.0\nsamples = 25\nvalue = [0, 38, 0]\nclass = versicolor", fillcolor="#39e581"] ;
7 -> 9 ;
10 [label="petal width (cm) <= 1.7\ngini = 0.16\nsamples = 36\nvalue = [0, 5, 52]\nclass = virginica", fillcolor="#8d4ce8"] ;
6 -> 10 ;
11 [label="petal width (cm) <= 1.55\ngini = 0.5\nsamples = 5\nvalue = [0, 5, 6]\nclass = virginica", fillcolor="#eadefb"] ;
10 -> 11 ;
12 [label="petal width (cm) <= 1.45\ngini = 0.28\nsamples = 3\nvalue = [0, 1, 5]\nclass = virginica", fillcolor="#9a61ea"] ;
11 -> 12 ;
13 [label="gini = 0.0\nsamples = 1\nvalue = [0, 1, 0]\nclass = versicolor", fillcolor="#39e581"] ;
12 -> 13 ;
14 [label="gini = 0.0\nsamples = 2\nvalue = [0, 0, 5]\nclass = virginica", fillcolor="#8139e5"] ;
12 -> 14 ;
15 [label="sepal width (cm) <= 2.85\ngini = 0.32\nsamples = 2\nvalue = [0, 4, 1]\nclass = versicolor", fillcolor="#6aeca0"] ;
11 -> 15 ;
16 [label="gini = 0.0\nsamples = 1\nvalue = [0, 4, 0]\nclass = versicolor", fillcolor="#39e581"] ;
15 -> 16 ;
17 [label="gini = 0.0\nsamples = 1\nvalue = [0, 0, 1]\nclass = virginica", fillcolor="#8139e5"] ;
15 -> 17 ;
18 [label="gini = 0.0\nsamples = 31\nvalue = [0, 0, 46]\nclass = virginica", fillcolor="#8139e5"] ;
10 -> 18 ;
}